0,1368255 0,2867566 0,2059173 -0,1114544 -0,02903864 -0,30262 -0,1639723 -0,06783896 -0,5557712 -0,0114461 0,1111159 0,1833817 0,2612317 -0,3507941 0,181331 0,0277709 0,3528352 0,4059683 0,3988136 -0,3167715 0,2347587 -0,2228004 0,06551234 0,2827883 0,05287674 0,0206969 -0,8024972 -0,2021796 -0,006506503 0,1790835 -0,1138598 -0,05561217 -0,05374498 -0,1635709 0,4836203 -0,2555155 0,2400969 -0,1655982 -0,2860505 0,09030137 -0,04343054 0,06333924 -0,09078648 0,144635 0,1846297 0,04093554 -0,1040518 -0,3363768 -0,1886274 -0,1743788 0,101778 -0,2208125 0,1487557 0,009950183 0,1566072 0,127174 0,02922226 0,3242199 0,5452131 -0,2302281 -0,0786917 -0,2653488 -0,2864418 -0,001593112 -0,2768992 0,01890569 -0,3567286 0,02093184 -0,3383731 0,1508567 0,06947277 0,2115559 0,04448848 -0,338391 0,5719792 -0,4292615 0,3307057 0,4028749 -0,03308152 -0,3803611 0,07887498 -0,187471 0,3130513 -0,6205929 0,4261828 -0,08242405 0,03585472 -0,1213835 -0,06082128 -0,07730834 0,3238166 0,4076542 -0,442068 -0,4845755 -0,2993436 -0,2406016 0,3689022 0,2913361 -0,01970677 -1,160184 0,105838 -0,07233431 0,0478626 -0,02789577 0,0648955 0,08867653 1,799718 0,02536994 0,1981902 -0,1044003 0,07709727 0,5005437 -0,009087788 0,1875171 0,2827708 -0,3020169 0,1268308 0,3013906 -0,06495859 0,1353206 0,4146194 -0,2869101 0,2087216 0,04187262 -0,1923652 -0,4587459 0,2795706 -0,3887258 0,4968962 0,3075224 0,5496555 0,1546162 0,03386716 -0,09876492 0,032163 -0,4066037 -0,4213656 -0,2024005 0,2301112 -0,2407999 -0,1769257 -0,1366067 0,1269786 -0,3765789 -0,3612547 -0,4419983 -0,2322032 -0,1416779 -0,2289417 -0,179874 0,09716982 -0,08436568 0,04180457 0,228914 -0,04624924 -0,06311031 0,6087041 0,0249254 0,3442902 -0,4104763 -0,1306544 -0,001721408 -0,1425383 0,4090406 0,1257431 -0,4569615 -0,08886939 -0,3057881 -0,29587 0,4097903 -0,301083 -0,2384614 -0,09167991 -0,1422254 0,1144743 0,1536089 -0,3413749 -0,2475111 -0,2087918 -0,169069 0,04060293 -0,1200857 -0,1617485 0,05953733 0,2327265 -0,03286747 -0,1913068 0,6774272 -0,2877541 -0,1630164 -0,3087703 0,1604228 0,1084344 -0,01305354 0,3239536 -0,3638989 0,2685736 0,1574986 -0,04699768 0,007649596 0,4990638 0,3123056 -0,3701158 -0,3296013 0,3953634 0,1078341 -0,2382229 -0,1977822 -0,155202 0,07246833 0,4251628 0,07372507 -0,076491 0,1111985 0,3158809 -0,1338703 -0,2021389 0,07155102 -0,2624248 -0,3459027 -0,1304695 -0,291505 -0,02978176 0,3426067 0,6022568 0,1038039 0,1332011 0,1635865 -0,1172817 0,01314898 -0,1831174 0,2093469 0,3173207 0,01451609 -0,2243632 0,1027645 0,2467371 -0,6585584 0,06901872 -0,2431503 -0,2168824 -0,2749992 0,2338751 -0,02546648 -0,2452949 -0,08491404 -0,2357751 -0,301207 -0,1134709 0,1298741 0,3257684 -0,3514207 -0,01136253 -0,04884132 0,1353949 0,3904892 0,08853631 0,0328353 -0,06731832 -0,03396878 0,1455639 -0,01046585 0,1761766 0,4810287 0,3527361 -0,2098111 0,1497093 0,1941369 -0,0476885 -0,2799155 -0,39236 -0,2561726 0,4608665 0,5173288 0,1067574 -0,06162423 -0,238478 0,2328607 -0,0520968 -0,03683108 0,6520234 0,229844 -0,2530856 0,4203717 -0,02193913 -0,3198711 -0,09304721 -0,04033727 0,0863985 0,092211 -0,1888582 -0,01513106 -0,08061415 0,004257663 -0,0690394 0,260471 -0,07383821 -0,09864669 0,06960341 -0,06357095 -0,1377468 0,4342695 0,1133849 -0,1513403 0,4853922 0,4949434 -0,05007624 -0,05043709 0,1543189 -0,162594 0,005687336 0,4945033 0,397483 0,2120508 -0,1014695 -0,5647933 0,1555964 0,2052733 -0,1005012 0,02127155 0,3645682 0,1963707 0,2655255 -0,7475654 -0,149676 -0,1725335 -0,08878611 -0,1181917 -0,0004947559 0,1955225 -0,5963354 -0,4858224 -0,2529625 -0,2721599 0,6111867 -0,2224681 -0,6626475 -0,4992677 -0,01060966 0,149319 0,1552299 0,06373485 0,08701415 -0,5911607 0,2675664 -0,3263727 0,2404856 0,1257349 -0,0621342 -0,02436957 -0,02339075 -0,07599879 0,564133 -0,2523668 -0,1565177 0,09442171 -0,3642676 0,2671281 -0,7837703 -0,2945812 0,09303582 0,2298979 -0,2208156 0,1951739 -0,2029507 4,052084E-05 0,4606832 0,199941 0,1999342 -0,1630742 0,3954281 0,6889428 -0,08560204 0,1716984 -0,04331199 -0,4433374 -0,06827316 -0,001877752 -0,1817753 0,4510102 0,198889 0,3168943 0,3139862 0,09058142 -0,5645598 -0,3217044 0,1021982 0,3327557 0,2999666 -0,4600266 -0,6607828 0,2464388 0,3268991 -0,206426 -0,4243598 0,06764372 -0,05766392 0,4410073 0,01303748 -0,3651076 ;0,2334699 0,1123684 -0,1867421 0,1418481 -0,1333952 0,0005026983 0,05091332 -0,05414859 -0,1062593 -0,01683816 0,01331422 -0,1050066 0,1055043 0,02338419 0,03231867 -0,07828466 -0,0750754 -0,1049634 0,2389257 0,05446698 -0,01332472 0,2083466 -0,3561238 0,308762 -0,1779463 -0,122289 -0,0007904181 0,1666944 -0,204017 -0,01338814 0,04616569 0,1008775 0,09537034 -0,06347241 0,06369585 0,1974652 -0,1303503 -0,06493807 0,08080898 -0,2093506 -0,08398636 0,1397295 -0,1652289 -0,2864359 0,1572646 -0,0783499 -0,1153222 -0,2517148 0,2707374 -0,321762 -0,06082273 -0,1467742 0,01631836 0,0393103 -0,02890361 0,1838481 0,04917304 0,06947626 -0,0183656 -0,1288293 -0,03523911 -0,1143528 -0,1849786 0,1635951 0,2495718 -0,06483707 0,03631208 -0,2238212 -0,04061264 0,2317388 -0,1366117 -0,5218651 -0,04923586 0,3835484 0,3613333 -0,1703716 -0,04761009 0,1443124 -0,1321497 -0,07114469 0,07023866 0,2801766 0,02450178 -0,06337865 -0,01289324 0,01752663 -0,1285758 -0,2286797 0,0220253 0,1758679 -0,148706 -0,1454059 0,3174043 -0,2180136 0,208752 -0,1025721 0,2329937 -0,00906717 -0,01472376 0,3359934 0,3412783 0,174226 0,3036459 -0,1072776 -0,4759075 -0,1130612 0,0016552 0,04061482 -0,1625902 0,3160865 -0,1759448 0,3119978 -0,3316253 -0,2748987 -0,175974 -0,2358312 0,09460837 0,5138249 -0,001571155 -0,352108 -0,3288965 -0,1097135 -0,1033281 0,3075879 -0,1356202 -0,02261023 -0,3013831 -0,1138196 0,4046856 0,3395967 -0,1861618 0,5837597 0,07793328 -0,1788668 0,5744788 -0,0512782 -0,5884584 -0,1578094 -0,5545399 -0,190578 0,4804937 0,2704176 -0,005474337 -0,3286934 -0,02191955 -0,1015757 -0,2486074 -0,06065981 0,2228459 0,02300299 0,014829 0,1397661 0,09746529 -0,1240105 -0,05197688 -0,03042053 0,009023353 -0,09034263 0,1036166 0,1247927 -0,09661933 -0,1287253 0,0527115 0,03252895 -0,4493197 -0,03080044 0,1375002 0,05510392 0,08587226 0,1647792 -0,171423 0,03059512 0,151106 0,1504396 0,05094119 -0,1300484 -0,09334363 -0,001542713 0,1103134 0,285865 -0,467463 1,112193 0,1064526 -0,1809513 0,389996 -0,01993362 0,2588419 -0,1689309 -0,05894394 0,09965611 -0,07645106 -0,2136185 -0,4216682 0,04422026 -0,159837 0,6274245 0,06787866 -0,01278664 0,4657151 0,1158586 0,1610756 0,4180799 -0,2639577 0,142923 -0,09274093 -0,4435316 0,9378852 -0,4009785 -0,3840159 -0,308254 -0,2155866 -0,1402179 -0,1241599 -0,05477461 0,06578534 0,1669449 0,1506931 -0,04720313 -0,291323 -0,4231404 0,1060816 0,2124931 0,06273821 0,01625646 0,3113965 