0,707428 0,3329559 -0,3562571 -0,5159063 -0,601877 -0,4018214 1,135273 0,07214832 -0,7188094 0,02490124 0,665258 0,07788973 0,5043215 -0,9657849 -0,0538945 0,2131857 0,1886017 0,122762 0,418178 0,3229134 0,3382998 -0,3856525 -0,06230533 -0,1250627 -0,2374157 -0,06961524 0,2995215 -0,008213071 -0,2921399 0,1488564 -0,02646402 0,1418396 -0,06227686 -0,3679611 -0,3563128 -0,2207278 -0,521555 -0,009654264 -0,1496898 -0,00805535 0,06122367 0,06021584 0,5209704 -0,4099606 0,02477251 -0,4195189 -0,02810772 0,02346476 0,09972066 0,1526628 -0,01917247 -0,1219192 -0,06717855 -0,06135875 -0,04755215 0,01005838 -0,02722935 -0,04737523 -0,53196 0,5244817 0,02210354 -0,2541594 -0,05394076 -0,05742882 -0,1362826 -0,1611435 -0,06019547 -0,08624225 -0,06621037 0,07581284 0,185538 0,0155377 0,1758257 -0,08147559 0,1915774 0,3285491 0,040589 0,01815099 0,0816972 -0,345194 0,02411346 0,1736036 0,0488671 -0,02359753 0,1340816 -0,0546737 0,05975386 -0,1538147 0,07674863 0,04214479 -0,1707452 0,1317188 0,03703243 -0,1563608 0,09827745 -0,2672819 -0,9662019 -0,05699091 0,256672 0,4604004 0,480402 0,3006051 0,778219 -1,149772 -0,01923809 0,0875586 0,4195054 -0,6567788 -0,4062217 0,4700248 -0,05391132 0,1049539 0,5334313 -0,05544711 -0,109875 -0,08769517 -0,2068528 -0,166786 -0,04526068 -0,1536886 0,7282023 -0,0920632 0,3316178 -0,02939136 0,06036005 -0,689769 0,01277375 -0,02560274 -0,08227596 -0,01769188 -0,02398959 -0,09225965 -0,1457231 -0,2203305 -0,2227138 -0,1439498 -0,2584851 -0,1269873 -0,4810033 0,6245966 0,04833534 0,1482028 -0,1317687 0,366415 -0,05935513 0,2338725 0,1604643 0,09989356 0,2076866 -0,07398759 0,06582311 -0,0337066 0,0988294 -0,07753285 -0,2225615 -0,1522678 0,1553638 0,08382862 -0,07095785 0,0620194 0,005511259 0,06883112 -0,07290505 -0,4406814 -0,1136956 0,1634881 0,09743452 0,09336521 0,1406875 -0,0349832 -0,3665549 0,3924203 0,2535895 0,3360581 -0,1041197 -0,544365 -0,1655755 -0,2337847 -0,1620128 -0,1967656 -0,3183883 -0,258597 -0,3530579 -0,4037472 -0,2446572 0,0157514 0,2479303 -0,08452115 0,4063608 0,224079 0,1294375 -0,005530146 -0,5460005 -0,4600289 -0,2960046 1,191368 -0,4124331 0,08815346 0,09732814 0,03203452 0,1889181 -0,05508183 -0,8413245 -0,1003375 0,4669141 0,4622169 0,8641572 -0,04921224 -0,01545733 0,2477742 0,0531677 0,5927408 0,2501459 0,01779682 0,2089545 0,2528896 0,1385301 -0,01682268 -0,3351177 0,1264797 0,1595936 -0,1141421 -0,4988743 0,3328474 0,06607582 -0,1361247 -0,09602871 -0,006132247 -0,1154455 0,005628231 -0,1660443 -0,005022867 -0,1111595 0,06067785 0,02399066 0,1778051 -0,08345702 -0,1332759 -0,02100494 0,1204624 0,1296949 0,07314856 0,1480881 0,1836327 0,08959715 -0,0171884 -0,02384835 0,07404662 -0,01717767 0,06547017 0,132585 -0,042491 -0,2134021 -0,5362749 0,03168566 0,01285914 0,06846038 0,2647187 -0,03201833 0,0829156 0,1666925 -0,07056379 -0,1383064 -0,1665144 -0,06897358 -0,1065615 -0,3214104 0,1438018 0,006925831 -0,50573 0,0251314 0,09866939 -0,1634332 -0,03035325 -0,04980338 -0,08811566 -0,01630456 0,005807971 -0,08795562 -0,1329883 -0,1684618 -0,03061098 0,2677132 -0,5548872 0,2818926 0,6517372 0,06662175 0,04480582 0,04091983 -0,1006136 -0,1222834 -0,05287119 -0,1607316 -0,01801834 0,08133397 -0,0604842 0,06719928 0,04764251 -0,1014853 -0,182682 -0,1380768 -0,2282288 -0,06733166 0,4286929 -0,119507 -0,04023863 0,02018787 1,755859 0,00699701 0,146307 0,1001036 0,151878 0,005491459 0,07860297 -2,712039 0,1485303 -0,2695685 -0,1531119 -0,2545251 -0,4109633 0,01511665 0,2705621 0,2546234 0,2894648 0,3317749 -0,09515468 0,01374564 -0,1653145 0,06621759 -0,02405912 0,1124856 -0,420867 0,07551061 0,5422676 0,06214603 -0,06943979 -0,2285051 -0,1233092 -0,1126723 -0,2288187 -0,09073987 -0,05987971 -0,07338178 -0,1726976 -0,0718359 0,04904639 -0,04106843 -0,0233743 0,3342661 0,1359777 0,2008275 -0,128137 0,236941 0,07514819 0,05984636 0,05588285 -0,01670572 -0,2133514 -0,07850078 -0,2032767 0,08515427 -0,1011319 -0,1909346 0,2613275 -0,09875915 0,4115962 0,03932291 0,09738128 -0,1904088 -0,3949593 -0,6004616 -0,4995178 -0,580976 0,1702207 -0,1915522 -0,1239654 0,0798925 0,03586077 0,1228461 0,4422206 0,3705706 -0,1855554 -0,0321512 0,1988171 -0,1153501 -0,1059743 -0,110167 -0,09670796 -0,08490712 0,06431969 0,0603695 0,02526253 0,1300582 0,03486082 0,2623115 -0,07823543 0,1477883 -0,06465665 0,1329902 -0,349106 ;0,3071432 0,002591393 -0,2116625 0,1125549 0,08299381 -0,004287248 0,1387555 0,1010379 0,2082373 -0,10392 -0,09675337 -0,1559093 0,04283585 0,1193516 0,1624827 -0,1141504 -0,05095764 0,04401922 0,005925235 -0,02690682 0,3220419 0,002145686 -0,24036 -0,03153388 0,2281417 0,2873141 0,03483689 -0,1670554 -0,1841448 0,07459796 0,02530477 0,1231716 -0,1125061 -0,2236724 0,2006062 -0,01588205 0,04700658 0,04745007 0,1763332 -0,2029098 0,144653 0,03590662 -0,07954513 -0,1469668 -0,03417822 -0,1506579 0,02205529 0,2155931 0,1363875 -0,1802249 0,047248 0,1940934 -0,0297085 -0,1456623 0,0926948 -0,0436114 -0,2761971 0,02179021 -0,1045321 0,004484897 -0,1709375 -0,05005572 0,01281128 0,1103705 -0,02167882 0,07708397 -0,1164993 -0,01681099 -0,05194186 -0,0565436 0,08900474 -0,03114221 -0,02986945 -0,1486294 0,04409982 -0,1729988 0,117502 -0,2094468 0,05108178 0,07696165 0,04670546 -0,08314008 0,32219 0,07502632 0,05405124 -0,1084134 -0,01906668 -0,02254847 0,1515801 -0,001209061 0,06580429 0,04297215 -0,1177146 -0,05161835 -0,07251918 0,05739632 0,016869 0,05446902 0,03850117 0,01089638 0,07325329 0,3257626 -0,6667763 0,2046024 0,4676607 0,005972991 -0,02256138 0,03576685 0,4345414 -0,06311639 -0,1019824 -0,1331738 0,0182 0,2427593 0,1600758 0,2393791 -0,3403632 -0,3652215 -0,4059752 -0,03222642 -0,01038598 0,2682635 0,02401119 0,8458782 0,1522173 0,2626654 -0,1400791 -0,2213959 -0,5915906 0,4538819 -0,1086551 -0,1566034 0,1096146 -0,4146732 -0,03018947 -0,4326645 0,3361065 0,06897105 0,4735776 0,07072635 0,0795899 -0,3105772 0,1979413 -0,4360028 -0,311858 0,410082 0,2384189 -0,09286741 0,6647293 0,3920175 0,002243137 0,03835066 -0,1795143 0,001581323 -0,09159305 -0,1646291 -0,00637992 -0,04077486 -0,0949172 -0,09876814 0,1064267 0,02347668 0,02880715 0,08690593 0,00112177 -0,1115111 -0,1093951 0,132132 -0,01685399 -0,02353612 0,08186072 0,0467629 0,2704141 0,05486521 -0,05415302 0,09010293 -0,05947365 -0,009610626 -0,04350908 0,06986575 0,01918689 0,05189106 0,03700802 0,02139461 0,05612077 -0,02622476 0,1456553 0,7204537 -0,2218194 -0,04378184 -0,07720616 -0,0310064 0,1168884 -0,009871723 -0,648541 0,07234748 0,1549321 -0,009910017 0,1342864 0,05730365 0,003106928 -0,009080606 0,01153253 -0,03835727 -0,06546815 -0,1896057 0,04471495 -0,04098493 0,2163208 -0,00791416 -0,2204768 0,03719937 0,261346 0,4402511 0,09935326 -0,01819977 -0,06716508 -0,005147172 0,09220818 -0,748287 -0,05892295 -0,1226243 0,05462273 0,2709295 -0,1204897 