-0,02115826 0,2664761 -0,1953054 0,006854322 -0,03674672 -0,1163635 -0,1565314 0,06044081 0,1556567 -0,2310062 -0,2419712 -0,4984122 0,2480307 -0,5755162 0,2157822 0,1983678 0,4525734 0,3976392 0,1777977 0,1203314 0,1422727 -0,2366894 -0,2567305 -0,3203655 -0,258954 -0,2688354 0,002098934 -0,121018 -0,2970663 0,02334142 0,08714661 0,4651096 -0,4315067 0,0475693 0,1889657 0,4581918 -0,02210685 0,2202456 0,4188738 0,06017189 -0,07654464 -0,1489785 0,1072775 0,2562512 0,1474421 0,1546097 -0,5048838 0,2081311 0,1634788 0,2271684 -0,05418015 -0,3044383 0,3631923 0,416123 0,1095748 -0,08860295 0,3689497 -0,1571589 -0,4238699 0,1098007 0,4974203 -0,5045404 0,1306027 -0,1602289 0,2164783 0,03127485 0,05798804 0,02659301 0,06895803 -0,1971832 0,002080917 0,3594778 0,2272875 -0,1954248 -0,1641965 0,05147231 -0,01311398 -0,1908157 -0,2597722 0,2952959 0,1941132 0,244789 -0,1745212 -0,1809629 0,0856882 0,1238634 0,2546428 -0,2905372 0,06534238 -0,0631035 0,1499992 -0,7335786 0,3001281 0,2742329 0,2033824 -0,3528871 0,1013056 0,02406642 -0,1279627 0,02980862 -0,2263515 -0,3583968 -0,01203771 0,2684826 -0,09194024 -0,02525671 0,2031292 0,08377678 0,2197872 -0,02498058 -0,5863687 0,009726116 0,7543584 0,4249816 -0,1858223 -0,3687556 -0,1484294 -0,4141693 -0,4901586 0,7331597 0,0476312 -0,1337477 -0,1387031 -0,0410728 0,4308229 -0,3242132 -0,01294176 0,3016933 -0,09757129 0,273632 0,1379502 -0,4519666 0,3857479 0,09923394 -0,1253056 0,1495042 -0,09661959 -0,0280336 -0,2313303 0,1641955 0,3462805 0,3734315 -0,4974504 -0,2966397 -0,2339158 0,1039652 -0,3987534 -0,3955147 -0,3085696 0,2323806 0,103294 -0,007998957 0,01051458 0,03000232 0,454015 -0,5237412 -0,009529378 0,4061307 0,1273871 0,4789183 -0,2205717 -0,1111921 -0,05490025 0,9349398 0,07574124 -0,2252595 0,02921722 -0,16729 0,0005459722 0,0043601 1,187376 -0,2016078 0,1778129 -0,1190812 -0,06585009 -0,09143968 0,6710154 0,08413731 -0,1622268 -0,4241789 -0,3091436 -0,5493824 0,5585673 0,08875295 -0,5176576 0,0845871 0,0372375 -0,06706583 0,5011225 -0,2819715 -0,1352239 0,3234212 0,08369726 -0,3784751 -0,3824258 -0,1095438 -0,1533101 -0,341979 -0,2511012 -0,3026956 -0,281179 0,2038951 0,4478636 -0,08096541 0,6868665 -0,3486341 0,4129095 0,6521695 0,03704565 -0,01932149 -0,1336286 -0,5546691 0,0916605 0,1566716 0,4172614 -0,3737002 0,2058982 0,3117005 0,05697623 0,2677423 -0,2549652 -0,4502188 -0,3373319 -0,0380251 -0,1366189 -0,4553579 -0,07877514 0,6462262 -0,5143245 0,1221681 0,03883063 -0,1195833 -0,09727384 -0,03649602 -1,170799 -0,2717847 -0,08219259 -0,2552307 0,1966611 -0,4666147 -0,3363142 0,06419355 0,3027838 0,6510675 0,3800187 -0,09857939 0,1394011 0,2946746 -0,202776 -0,1880012 -0,1673717 -0,2966224 0,06308272 0,03780628 0,1816838 0,2961114 0,03509999 0,1301734 -0,2763664 0,4771461 -0,04435207 -0,3938971 0,07151709 -0,4046239 0,03253772 -0,0334543 0,07827953 -0,03310648 0,1613703 0,1382263 0,2339262 0,1016625 -0,1931633 0,05431549 -0,0307806 0,01354755 -0,06925102 0,07757013 -0,1230606 0,3249615 -0,4535788 0,2658127 -0,2066651 0,1613459 0,2895377 -0,2677658 -0,4027925 -0,05012452 0,1661829 -0,2323341 -0,1593568 -0,4035437 -0,4254701 0,1265453 0,08311525 -0,2839848 0,4117736 0,3149095 0,2373037 0,1318429 -0,1792014 -0,02502764 -0,1753972 0,3697992 0,2471215 0,1382139 -0,539288 -0,3002298 -0,7562078 -0,4364252 0,1426941 -0,4065922 -0,5453895 -0,338679 0,3916435 0,2006788 0,1911671 -0,4998183 -0,09380411 -0,3134865 -0,4912781 -0,3484565 0,1573608 -0,08037885 -0,2789515 0,1651792 0,07314564 0,02368032 -0,004316384 -0,1712373 0,5687277 -0,6359558 0,2938647 0,1659542 -0,02344645 -0,2821281 0,06245807 0,2374576 -0,3103355 -0,5596043 -0,494586 -0,2997437 0,2511008 -0,279159 -0,173093 -0,04745466 0,5860271 0,3676818 0,5294213 -0,2312132 -0,04479167 0,03820029 0,30207 0,1203585 -0,07657493 -0,1878789 0,1975551 -0,001781251 0,3040772 -0,202794 -0,05805486 0,1406728 0,4833696 0,04461739 0,08567002 -0,247903 -0,07024102 -0,1171035 0,08286771 -0,2421434 -0,246794 -0,483753 -0,3744113 -0,2611856 -0,2262982 0,3412687 0,2545477 -0,1199295 0,1685447 0,2991568 0,3177702 0,07717645 -0,02047466 0,06620924 0,2213194 -0,2368431 0,03427349 -0,3936163 -0,3675043 -0,08273643 -0,005840389 -0,1127892 0,7467413 0,2921498 0,4654661 0,2365772 0,1509447 0,1427558 -0,1783268 -0,2293472 ;-0,04364956 0,09973068 0,191876 -0,1387614 0,2622311 0,3038044 -0,2775399 -0,2380966 0,02963004 -0,05825197 0,07330771 0,2620211 -0,1643851 0,08998539 -0,1128519 0,02943321 0,2702171 0,2312182 -0,06244258 -0,2860736 0,004576997 0,2868564 0,09332686 0,09678287 -0,1403961 0,0614811 -0,0007143164 0,1499185 -0,01679821 -0,2535675 0,008678741 0,3328191 -0,03632012 0,02091297 -0,002397435 -0,06582176 0,2730608 -0,07425582 0,02442968 -0,07539244 0,1672296 0,06675589 -0,271645 -0,1140084 -0,307805 -0,04108912 0,2514866 0,2096837 -0,400193 -0,03112406 -0,0993818 -0,1472296 0,232783 -0,2995359 0,1539696 0,1341927 -0,2662744 0,5894924 -0,2116283 -0,2084638 0,1393899 0,04793174 -0,007328621 0,1375365 -0,2717481 -0,1100265 -0,06273874 0,04825579 -0,2876054 -0,009645822 0,02786308 -0,1507122 -0,1364225 -0,1679766 0,1013443 0,09673103 0,07728722 0,07240065 0,07625681 0,1531336 -0,04852958 -0,09053396 0,1724581 -0,07906461 -0,1952445 -0,1800012 -0,3435836 0,0552913 0,04010987 -0,06454901 0,3269489 0,152541 -0,03888718 -0,0006361331 0,1118384 -0,04547279 0,004366511 0,1759115 -0,05660808 0,3861768 -0,1839718 -0,2867976 0,4299576 0,3522628 -0,2504356 -0,6074882 -0,3067673 -0,135683 0,06510422 -0,2676097 0,1050173 0,08026253 0,03461534 -0,2634431 -0,2095305 -0,2562144 -0,09318915 -0,1579683 -0,1405396 0,2132967 -0,7081358 0,3563113 -0,2967427 0,1705037 0,02293854 -0,100816 -0,5871827 0,03153093 0,1255385 -0,6339108 -0,01165169 0,3675694 0,3198565 -0,06993544 0,3239027 0,3913404 0,01573763 0,5510321 -0,4932446 -0,350507 -0,2721253 -0,2124038 -0,4007626 -0,3302901 -0,03233863 0,2435661 0,1092389 0,365773 -0,3537238 0,22154 -0,4294618 -0,06016212 -0,03781147 -0,0323514 0,3610187 0,1548819 -0,2067808 0,04471407 0,2188855 0,07719584 -0,1396157 -0,0265436 0,05756316 -0,1869147 -0,0927741 0,06353913 0,3417204 0,05576424 0,125244 0,03280775 0,0691343 0,01879082 -0,1542619 -0,1897313 0,01015463 -0,2284489 -0,2278319 -0,3272145 -0,08252295 -0,3245186 0,2528071 -0,3099096 -0,01187617 -0,2595462 -0,1044899 -0,6307077 -0,1790126 0,3493034 -0,2286831 -0,9409424 0,2922855 0,4710417 0,02458278 -0,2188079 0,05787164 0,4667718 0,295027 0,1039411 0,2413284 0,1053268 -0,2828708 0,2215714 0,1101725 -0,03179693 0,2151738 -0,1969977 0,3571745 -0,05240082 -0,1058665 0,2077335 -0,8369958 -0,4693425 0,7383984 -0,05757526 -0,4531817 0,2955167 0,2569785 -0,01759168 0,01706897 0,01548093 0,20101 0,1962884 0,4432065 -0,05703085 -0,04123987 