0,4087098 0,4836361 0,2220982 -0,5137316 0,06682197 0,2090672 -0,03710814 0,3129304 0,07992701 0,1079215 -0,2406331 0,08131669 -0,4647654 0,07379281 -0,5223219 0,3905576 0,4490018 0,5022088 0,1097652 0,2507829 0,1425063 0,0737438 -0,09618518 -0,1090209 -0,3684273 -0,146836 -0,4595081 -0,4181329 0,1302774 -0,2765519 -0,1970494 0,2470504 0,2518845 0,1532365 0,3159946 0,08484213 -0,09250513 0,2937159 0,1852499 -0,0792897 0,3445987 0,3100003 0,1129517 0,1326108 0,07439765 -0,2923847 0,01274209 0,4539272 -0,185506 -0,2763354 -0,08130374 -0,1554013 -0,09193225 0,3739858 -0,1312247 -0,415616 0,2477089 -0,1776748 0,3880229 -0,3602854 0,2094258 0,3079067 -0,06859671 -0,09428205 0,09597293 0,06476064 0,1239633 0,3700407 0,06380457 -0,0326678 -0,03628708 -0,1431986 -0,1997205 -0,32027 -0,8571027 0,463393 0,0398646 -0,05048133 -0,2709484 0,288125 -0,4277069 -0,2829002 0,2111089 0,4779502 0,172866 0,4285195 0,02502991 -0,1974895 -0,129503 0,1621423 0,8738272 0,3529142 0,4100739 0,06943823 -0,06627958 -0,3333131 0,3009149 -0,1262603 0,1631873 0,2883105 -0,0322462 0,1569057 -0,1992677 0,1866128 -0,03665962 -0,2297021 0,3637073 -0,4893324 0,4745957 0,1260338 -0,1199402 -0,2775209 0,5705994 0,2224784 -0,3855727 -0,2064587 -0,375743 0,2851968 0,4974561 -0,1425546 -0,4693954 0,02050018 0,2024769 0,02621402 0,4199808 -0,05115884 -0,1750496 0,3502065 0,1903789 0,273341 0,4437869 -0,04374373 0,1100388 -0,2360351 0,2492507 0,04637445 0,1311632 0,2699277 -0,4228907 0,1342767 -0,3629098 0,2601877 0,3005004 -0,09967017 0,1022138 0,1136863 0,1643887 0,3604537 -0,05539775 -0,5120428 -0,4036132 -0,2647584 0,08105674 -0,07675391 0,2565725 -0,3147536 0,5267015 0,2444769 0,4120418 0,6504107 0,4410616 0,6428106 0,3126154 -0,964387 0,2989638 -0,05035339 0,1634931 0,1621687 -0,066153 -0,1110582 1,55418 -0,09136006 0,2312195 0,2795731 -0,07753994 0,5445445 0,2586193 0,2899767 -0,005597168 -0,2150221 0,06348768 0,1661069 0,03288851 -0,3261125 0,2009902 0,2465027 0,3797189 0,009532936 0,01639187 -0,562447 -0,0578305 0,4178783 -0,3712405 -0,151391 0,232571 -0,3698406 0,2163131 -0,004129991 -0,5457495 0,150109 0,3050998 -0,3098481 0,01266308 0,4137138 -0,08439144 0,2827196 0,3342717 -0,4908277 0,5093585 -0,03070583 0,5054826 0,5680657 0,2092778 -0,00389341 -0,2455702 -0,1197699 0,1542476 0,02639301 0,1269683 0,1482293 -0,1264466 -0,2628753 -0,1801585 -0,09177514 0,4586634 0,3834386 -0,2028314 -0,02031287 0,2279083 -0,1765004 0,1401118 0,22937 0,3744745 -0,4271105 -0,1272761 0,008415181 0,2764814 -0,09147048 -0,2565983 0,107836 0,417452 -0,09029393 -0,2420948 -0,3774669 -0,4869227 0,1352339 -0,5635134 0,09103931 0,5010275 0,2150761 0,2064829 0,05663285 -0,1292603 -0,1538982 0,2527044 0,4360688 0,2983986 0,0493904 -0,1767028 0,02999716 0,129938 -0,3866506 -0,2649131 0,1985097 0,2994649 -0,2379078 -0,1881151 0,1579963 -0,1741249 0,3963981 -0,03613399 0,3554087 -0,1674187 0,1041983 -0,1451076 0,4117761 0,3267805 -0,110611 -0,2485613 -0,3215517 0,2718316 0,24649 0,04778576 -0,4871189 -0,007356983 -0,192729 0,06886649 0,1254797 0,2364836 0,2420771 0,2581483 0,1096031 0,04454054 0,2144354 0,2880125 -0,1270434 -0,05683633 0,1216614 -0,2646348 -0,4595333 -0,01654666 0,07861526 -0,030547 -0,2112673 0,07050969 0,3003331 -0,4138158 -0,07002125 -0,5213576 0,1945858 -0,05526692 -0,1018213 -0,1803727 0,3711964 -0,01383848 -0,3137579 0,1236373 -0,5256656 -0,0507514 0,05439159 0,02697221 0,07205477 0,2519823 -0,3316062 -0,1035048 0,1679976 0,03589692 -0,1688322 0,2353405 0,2787277 0,07298905 -0,2003011 -0,1855301 0,3061879 0,1757719 -0,1945084 -0,5348881 -0,2045807 0,371656 0,2758757 0,2873496 0,01517299 -0,5006177 -0,5728187 0,3924881 -0,2642253 -0,1229298 -0,2410008 -0,2061018 0,2359078 0,2176417 -0,144845 0,05737121 0,1963334 0,3240698 -0,8510514 0,2285095 -0,2495706 -0,3217192 -0,2474112 0,08886166 0,2041577 0,6624644 -0,1506091 -0,5059422 -0,08291742 -0,2947179 -0,1035518 0,1329123 -0,3998175 -0,3319106 0,1730059 -0,2535332 -0,08510891 -0,09024382 -0,2654897 -0,1890532 0,2119016 -0,2320718 0,6572652 0,2910865 0,3343441 -0,1314302 -0,4912426 0,6493905 -0,1767958 -0,0173295 -0,09686476 -0,3494146 -0,3655947 -0,1006759 0,4355656 -0,1529465 -0,1064259 -0,01439853 0,1377826 -0,06954662 -0,4200625 0,2564926 -0,002729048 ;-0,05996389 0,09820109 0,3667606 -0,2118309 -0,1399504 -0,01387146 -0,2136777 0,189992 -0,2664396 0,2297185 0,07291803 -0,1461312 -0,0615009 -0,06504794 0,03564937 -0,3515326 0,01810426 -0,0003919136 0,1187264 -0,197572 0,2718953 -0,009458369 0,06901396 -0,05217192 -0,1070653 -0,02004535 0,03715487 -0,06808661 0,2082012 0,01170116 0,04934989 0,08318657 0,09968734 0,471883 0,1297579 0,1198415 0,1708771 -0,1158384 -0,05076507 -0,02483934 -0,2633383 -0,06702301 0,06929404 -0,09951434 -0,08609466 -0,2186008 -0,1926732 0,01559175 -0,1391157 -0,1784671 0,1674806 -0,01076521 -0,04873909 -0,04305217 0,06939626 0,4195318 -0,05981173 -0,3514221 -0,07423726 0,04357673 0,1563295 -0,4266338 -0,03089312 0,1304513 0,05908503 0,03703799 0,06525344 0,09450348 -0,01061144 0,107487 0,06819503 -0,3533114 -0,08079815 -0,1618337 0,2635348 -0,06639376 0,2547591 0,1316598 -0,07182226 -0,2184644 -0,0009334417 -0,1227492 -0,4473798 0,09493685 -0,02133868 0,012733 0,2528799 -0,0109734 0,2658145 0,3051844 -0,01792375 0,03388436 -0,2177531 -0,1134668 0,04044143 -0,09428497 0,1478415 -0,2062285 0,1193931 -0,1662867 -0,02473809 -0,4160993 0,4423256 -0,2291472 0,6264678 -0,03146791 -0,3764044 -0,09180626 -0,2326703 0,1267815 0,1164802 0,2474938 0,3580451 -0,0267741 0,1253285 -0,03442909 -0,2770726 -0,3623658 -0,5752028 0,1718405 0,09580031 -0,1887898 -0,1194745 0,4542652 -0,1162138 -0,4182045 -0,2788183 0,248434 -0,1846153 -0,6412278 0,1834702 0,384422 0,3905663 -0,2407877 0,2561021 0,4284838 -0,1703938 -0,01979268 0,09159935 0,09438364 -0,1639483 0,04780723 0,04742851 -0,330487 0,3861416 0,2329666 0,1185247 0,02874863 0,0008316374 -0,1198707 0,09643645 0,0462183 0,3658784 0,2108805 -0,06524553 0,02260231 0,07131373 -0,1501691 0,01905537 0,1578036 0,09703697 -0,1834108 -0,04478842 -0,3514622 -0,2301599 -0,13572 0,3798088 -0,1420652 0,101162 0,02709284 -0,08584761 0,01303102 -0,003069063 0,2575112 -0,08827299 -0,4482477 -0,04094306 -0,2765888 0,4385455 -0,2192353 -0,4122337 -0,07125986 -0,1063605 0,1580584 0,304255 1,085538 0,25058 0,1938027 -0,3460441 -0,3430063 -0,07016975 -0,1719628 -0,04072208 -0,2908574 0,02736369 0,212917 -0,0008938622 -0,627746 0,3106961 0,1347923 0,5082383 -0,1607324 -0,2792765 -0,1940067 -0,3148436 -0,4090119 -0,3456154 -0,2086262 -0,4272876 0,5589132 0,8263307 0,2748311 -0,3464227 0,2802713 -0,2665104 -0,08110722 -0,1564398 -0,2309512 -0,2109579 -0,1380297 -0,2258224 0,4060816 -0,6288519 0,1718834 -0,2114957 