0,2566183 0,1887236 0,1735258 0,2800147 0,2163176 -0,07709727 -0,1891584 -0,02992029 -0,07685184 -0,07909901 0,01668086 0,2487383 -0,104478 -0,07976668 0,02246239 -0,0472673 0,4385324 0,4406727 0,2911977 0,3934326 0,2710107 0,06960244 0,06592851 0,196416 -0,07889568 -0,03858201 -4,719732 0,5622131 0,6294064 -0,9803151 -0,336839 0,53289 0,2268787 0,4129295 0,6118993 0,1974946 0,1422962 -0,08464788 0,05643214 0,1352087 0,01470721 0,0271699 -0,2151736 -0,4730492 0,3988413 0,347043 -0,06668004 0,1233523 0,298142 0,2696777 0,3712202 -0,04911357 0,1009296 0,6030556 0,1848719 0,04793167 -0,05739421 0,05889664 0,5012256 0,4105069 -0,4572518 -0,6846579 -0,1876687 -0,6324036 -1,063389 -0,3370211 -0,4566199 -0,5282915 -0,5378479 -0,2887295 -0,142192 -0,1340582 0,1187362 -0,09326368 0,4227805 -0,9996434 1,035613 0,5756285 0,362837 -0,7381852 0,5179804 0,7666045 0,9405978 -0,5688143 0,7405164 0,01509922 0,1410372 0,005986101 0,09510871 -0,03661421 -1,011561 0,09538219 0,6793571 0,5749797 -0,5887538 -1,604408 0,7414727 0,1180704 -0,2361405 -3,310301 0,3655576 -0,119784 -0,1457909 -0,01122659 -0,05997771 0,05529484 6,355487 0,1955513 -0,5428168 -0,2496045 -0,3658853 2,703197 0,147386 0,1972612 0,1745347 0,1847245 0,1786535 0,2371904 0,04010464 0,2106851 0,003688855 0,09866411 0,2440961 -0,1654977 -0,2270097 -0,6154382 0,03252346 -0,1229618 0,2179464 0,3414878 0,395378 0,4185834 0,1330556 -0,05862803 -0,1178371 -0,2022858 -0,4094429 -0,04596283 1,125071 -0,5626505 -0,5541567 -0,5280167 -0,2030146 0,1022809 -0,515646 -0,5349012 0,05143259 0,1609061 -0,1762371 0,02323295 0,2315738 -0,06098696 0,0661397 -0,0365199 -0,8703886 0,638623 1,582716 0,03637324 0,0260915 -1,325631 -0,01270892 -0,02119211 0,0525537 0,0503403 0,05517651 -0,07367121 -0,1121323 -0,06523462 -0,07818226 0,03755378 -0,2483277 -0,2255308 -0,007292004 -0,5326136 0,01958762 0,3165817 -0,3644085 -0,395033 -0,42394 -0,4392081 -0,460927 -0,09911759 0,0584539 0,006086397 -0,0004008553 0,01850785 0,4887838 1,046285 -0,3389913 -0,6671667 -0,2029011 0,3351711 1,35048 0,009537605 0,09109957 -0,3694757 -0,1775721 0,0001043343 0,1548095 0,3053046 0,1704416 0,1152181 -2,657955 -0,7338167 1,094571 0,1639416 -0,3344122 0,5516326 -0,03851214 0,3517323 0,07352828 0,3511296 0,1411835 0,6147084 0,1427727 0,1566564 0,2356941 0,01674265 -0,2141428 0,05822775 -0,7150601 -0,8322265 -0,2429087 0,4493709 0,2254344 0,05418555 0,1475143 0,1280123 -0,2359361 -0,5406824 0,2969393 -0,008867799 -0,3572948 -0,09330449 -0,7136432 -0,3654526 0,6062142 -1,147136 -0,1541206 -0,1217743 -0,3108949 -0,2156951 -0,4675537 -0,2070167 -0,5543151 -0,1156669 -0,3910122 -0,2166975 -0,2751605 0,09686216 0,4217057 -0,04272728 -0,04788978 -0,8992169 -0,06748426 0,6749737 0,2963123 0,4579186 0,5780562 0,2746985 0,2011625 0,201981 0,1946276 0,1565921 0,3320771 0,02205841 0,3551557 0,9168743 -0,4432743 0,1107055 -0,2214526 -0,9971669 1,081089 0,4581526 0,0843986 0,005178143 0,07075337 0,3885404 -0,2085872 -0,1021546 1,543553 0,02526679 0,71004 0,6723864 -0,226188 -3,372521 -0,1370874 0,07571138 0,061558 0,04792494 0,03161322 0,07192648 -0,09150887 0,06029974 -0,1167831 0,06883434 0,1094895 -0,07717913 0,5199023 -0,06452556 -0,5784287 0,9992592 0,05334853 -0,1695438 0,7089616 0,3686588 -0,03813493 0,0205952 -0,01248602 -0,1457239 -0,1050336 0,4972003 -0,006941877 0,1113462 1,629462 -1,242927 0,009043866 1,190109 -0,03525639 -0,05259115 0,6888753 0,3757082 0,3197174 -1,188562 0,02825267 -0,03340603 -0,02784468 -0,009631123 0,06039097 0,03606195 -0,309725 -0,5226919 -0,5755634 0,1753985 0,786225 -0,537354 -0,9128511 -1,080217 -0,148763 -0,2586657 -0,7136092 0,7744475 -0,01280722 -1,421203 0,151473 0,08631787 -0,6939757 -0,6705456 0,12197 3,98916 -0,04484213 -0,2684621 1,452237 -0,2162543 -0,565012 -0,6008094 -0,9807793 0,2278835 -0,7010029 0,2744249 -0,4324666 -0,08540437 -0,1850506 -0,160246 0,9685951 0,4911375 0,293909 -0,3521662 0,188305 0,0932534 0,3240151 0,3671659 0,4496917 0,1077524 0,04031372 -0,4152085 -0,2973456 -0,07284485 -0,2798867 0,3780435 -0,1997522 0,7304571 0,129862 0,001934772 -0,6368713 -0,4824229 0,123321 0,2338785 0,2796316 -0,4138579 -0,7504011 0,3986275 0,178523 0,1214006 -0,4785266 -0,988446 -0,4653493 4,077814 0,04071404 0,1554402 ;0,1527788 0,3365318 0,331174 -0,1108918 -0,2683353 -0,04066168 0,03357362 0,1411839 -0,08611333 -0,03015742 -0,05300734 -0,1127706 -0,4106706 -0,1653583 0,01286262 -0,1880417 -0,01824786 0,1539315 0,02623632 0,2204221 -0,003768204 0,5532941 0,1281936 0,1136644 -0,2607818 0,05388805 0,1375282 0,2091178 -0,1045433 -0,02103076 0,06366651 -0,01715622 0,05079951 0,03967069 -0,05088353 -0,03631939 -0,08517414 0,07748497 -0,09965191 -0,2584394 -0,006267505 0,06941706 -0,3783914 -0,01952498 0,295779 -0,04365938 -0,06009763 -0,2980511 0,1870147 -0,4663197 0,103611 -0,209412 0,2618857 0,07756669 0,05481466 -0,07995111 -0,03496767 0,1966655 0,2364885 0,08600372 -0,07848622 -0,008275804 0,3202632 0,09283095 -0,1171777 -0,0234821 0,123525 -0,1453462 0,01333399 -0,2292077 -0,145154 -0,5163867 0,233875 0,1171275 0,3799334 0,1264688 -0,03716766 0,05693635 -0,1865685 0,1874925 -0,03245865 0,04146107 0,004437648 -0,1261084 -0,09225624 -0,04162965 0,07044983 0,02863489 0,0285732 0,1695569 -0,1077097 0,1513507 0,4748065 0,02446313 -0,04638618 -0,06106049 0,006282717 0,0004561883 0,2920395 0,2519329 0,6908456 0,2386727 0,3945713 -0,08310127 -0,05038242 0,00817342 0,03179958 0,3769644 -0,4334047 0,007778412 -0,7438369 0,6208652 -0,0925831 -0,1986339 -0,05922952 0,2599896 0,1683047 0,02083546 -0,1027882 -0,03566425 -0,06159679 -0,003072858 0,03302618 0,4096124 -0,02940636 0,1924187 -0,6783063 0,3632505 0,1747052 0,2472426 -0,1929489 0,02819481 0,04885846 -0,5300685 0,1346046 -0,07958043 -0,2402842 0,06532055 -0,01774067 -0,07182841 0,3067252 0,08093 -0,06493241 -0,9318922 0,376633 -0,1795745 -0,0213047 0,0380405 0,1355415 -0,1304814 0,04000364 0,08827265 0,118276 -0,09608483 -0,005981254 -0,003002528 0,004420779 -0,01734907 0,08577155 -0,02782042 -0,3339669 -0,01819138 0,01304181 -0,04680103 -0,1145553 -0,001509564 0,03587511 -0,03292365 -0,08616586 0,04709925 -0,00468041 0,03580987 -0,008583259 0,1001484 0,02239304 -0,04745373 0,2285198 0,1620767 -0,03645628 0,4398216 -0,7271062 0,6000414 -0,02250527 0,005818804 0,3613684 -0,1018007 0,04966957 -0,07386566 -0,2007101 -0,2946382 -0,1256832 0,06138103 -0,07954294 -0,04854177 0,0766047 0,4526525 0,03607178 0,02677366 0,2061003 -0,1221938 0,04298807 0,2027505 0,07837108 0,2182816 0,09765045 -0,5227725 0,6655541 -0,1252046 -0,2803487 -0,5653204 -0,02735308 -0,5481429 0,004913862 -0,3765615 0,165106 -0,03974195 0,5242292 -0,02115965 -0,1751019 -0,3133103 -0,5304137 0,05656346 0,06101864 -0,01127115 0,04804929 