0,1321826 0,0104926 0,2443357 -0,5926535 0,3690233 -0,07172903 -0,1904503 -0,3190503 -0,3622191 0,01595689 1,496127 -0,05712016 -0,5275546 -0,6129247 -1,019299 0,7697099 -0,04846442 0,5415099 0,2534426 0,928941 0,4533153 -0,1528095 0,01348652 -0,1450384 0,1806033 -0,006535686 -1,491187 0,03951718 0,2069914 -0,06909214 -0,429907 1,104514 0,8165703 0,4112343 0,1456483 0,1525138 0,2759216 0,6838688 -0,1927217 0,2819713 -0,2563075 -0,0383905 0,5413799 1,050349 -0,1725067 -2,270998 -0,03022411 -0,1070844 0,2046682 -0,04762757 -0,2861494 -0,617775 -0,3172986 0,07978652 0,275704 -1,208344 -0,04752304 0,2450108 0,7807578 -0,937721 0,1020715 1,046263 -0,1405161 -0,04982449 0,4377722 -0,1667665 0,1907902 0,2377801 0,2393084 0,0819915 0,2024085 -0,01162434 0,05158321 -0,0342933 -2,148272 1,627132 -0,747883 -0,873001 -0,3102757 0,2615813 -0,5595164 -0,1939449 -0,2014197 -0,4895952 -0,2369971 -0,1208565 -0,1924506 -0,2005196 0,0435777 0,05945688 5,236721 -0,5582237 -0,4730732 1,18091 0,3413963 -0,5514486 0,3461297 -1,081925 -0,5783036 -0,5018963 -0,5140839 -0,2604753 -0,1839422 -0,2400074 -0,258372 -0,03075438 1,028104 -1,866888 1,075126 0,5813773 0,3178335 0,2844575 0,70091 0,3587122 -0,138193 -0,2473414 -0,06773138 0,404463 1,459276 -0,01121437 -0,213455 -0,1244255 0,405262 1,237523 -0,1719814 -4,437561 -0,007277122 -0,1449857 0,7303145 0,3106477 0,4585212 0,6706402 0,3413442 -0,2898445 0,1280437 -0,1282367 -0,1699535 0,02385291 0,005659767 0,3395417 -0,8047057 0,6517661 -0,0986325 0,4597956 -0,4945115 -0,5452291 -0,6497565 0,7474034 -0,4256994 0,01911604 -0,109901 -0,02128346 -0,08877384 0,05879056 0,6851285 -0,1284563 -0,5470092 -0,4573706 0,5185336 1,63523 0,6855759 0,58725 0,4553937 -3,698434 0,7845772 -0,1103441 -0,2083873 -0,1202953 -0,08914931 -0,0325438 6,645032 0,4220255 -0,3898289 -0,3356136 -0,2994701 2,723158 0,6551012 0,1216066 -0,3754401 -0,5786367 -0,2587214 0,2833943 0,0368408 0,01023978 1,285212 0,05525354 1,085744 0,5460106 0,004145154 -2,705521 -0,2503728 0,1045703 -0,09657397 -0,08617314 0,05716994 -0,4835665 0,2095265 -0,1377145 -0,2773298 -0,1651208 -0,2395862 -0,05081492 0,1236152 0,5720562 -0,1417563 0,7427197 0,4819865 -0,4957278 0,5148912 0,4895361 0,6339654 0,5299738 0,5665869 -0,2083293 0,06549679 -0,1452647 -0,05912726 -0,08576526 -0,1128528 -0,02051167 -0,3087537 -0,2680718 0,07955945 -0,2333582 0,1136464 0,2844234 0,3102216 -0,1687407 -0,1399054 -0,06283367 0,3529435 0,06389463 0,1373764 0,1481991 -0,6309929 -0,01463101 0,7346778 -0,3527935 -0,2327213 -0,09009619 0,586562 -0,6719114 -0,878297 -0,6878291 -0,6793985 0,2106432 0,2159853 -0,117116 0,1194295 0,1084341 0,1036921 0,9563438 -0,4935192 -1,584479 0,3420921 -0,06501291 0,1013732 0,1845611 0,1559705 0,1097201 0,2278807 -0,03416093 -0,1228734 -0,1380111 -0,05238019 -0,08600619 0,2601786 -0,03644674 -0,1026389 0,6264169 -0,1309965 -0,002962181 0,06248786 0,1122248 -0,005280808 0,1679745 0,5661849 -0,1452825 -0,03751023 0,1010431 -0,117085 0,07455748 -0,1619779 -0,3033112 0,0285766 -0,137315 0,2663271 0,01962583 0,4163039 0,4196436 0,4564257 0,3443456 0,3210028 0,1855689 0,2468013 0,1174645 0,1046403 0,0456791 -0,1854482 -0,7347834 -0,1838693 0,4914848 -0,007588819 -0,08276433 -0,02613941 -0,3090826 -0,1942094 -0,4025268 -1,280509 0,3708636 0,01675191 -0,5095307 -0,4865723 -0,2537977 0,1678572 0,07207648 1,174858 -1,624866 -0,02646239 -0,8438824 -0,04706491 0,1527896 0,1666876 0,1458153 0,2056585 0,1981367 0,06381413 0,05326998 0,08442111 0,04574811 -0,1616089 0,225009 0,06137939 0,4286 0,04440573 0,009834464 -0,7651941 -0,8405039 -0,01089571 -0,1585156 -0,594333 0,6974626 -0,165908 -1,581652 0,04905412 0,1002977 -0,4605395 -0,8243651 0,05871094 3,996821 -0,005177547 -0,1663606 -1,106364 0,204656 0,2313953 0,03058139 0,04224316 -0,2178728 -0,2650546 -0,1184738 -0,04578258 0,01633008 0,5544134 0,3240863 -0,2247796 0,2455739 -0,671849 0,1260026 0,2325591 0,23079 0,3448194 0,04145475 0,06714446 -0,0347307 -0,1104715 -0,1355453 -0,02722776 -0,08843667 0,5165538 1,412333 -0,09662586 1,144162 -0,05387097 -1,455617 0,5234867 -0,08421368 0,3845601 0,6305168 -0,02374992 0,5070441 -0,4978322 0,4125908 -0,2093976 0,0001266879 -1,057916 -0,2903077 0,4464785 -0,5330133 -0,486565 0,5982449 ;-0,08042368 0,1027557 0,7315328 -0,1021234 -0,1946511 -0,3529483 0,1871492 -0,00849952 0,2527156 0,05015149 0,01193047 0,05424346 0,03133291 0,1668069 0,1656563 0,004161218 0,0414354 -0,04602769 0,1036416 -0,01777291 0,2820086 0,6009024 0,05984532 0,07061163 -0,1851612 -0,05925857 0,08846053 -0,2290641 0,1708309 -0,2850698 -0,2184649 0,06366372 0,5856803 0,1332325 -0,003860783 0,01289836 -0,06048001 0,08307794 0,06530681 0,005154285 -0,2406394 0,07113781 0,04513478 0,00548313 -0,2801548 0,3423882 0,0339013 0,06314761 0,1755984 0,1238526 0,1436699 -0,188555 -0,05936984 0,02582569 0,1010556 0,241694 -0,149045 -0,3557516 -0,06866129 0,03349575 0,03718369 -0,3299895 -0,1380616 0,03499201 0,03290533 0,0440294 0,06981088 -0,1200408 0,07854256 0,07681393 0,2439513 -0,6057452 -0,209916 0,03637199 0,2145541 0,04421695 0,1082393 -0,257541 -0,1243639 0,1303863 0,03031594 0,00830554 -0,1908741 0,1554425 -0,02113203 -0,02939701 0,4707037 0,01853728 0,1394166 -0,09987053 -0,1839311 0,03705268 0,1908014 -0,01889269 0,1725169 0,2736908 -0,03377709 -0,1677415 0,06135451 -0,04432727 0,009363586 -0,08266402 0,09661549 -0,03524782 0,0285912 -0,2264976 -0,07000103 0,03296175 0,4347358 -0,03649008 0,02558454 0,05168341 -0,04294043 -0,1188303 0,1731628 -0,1353907 0,01404943 -0,04525942 -0,9325967 9,022259E-05 1,040535 -0,01821264 -0,1972117 0,1933687 -0,03891515 0,05256784 0,2594362 0,1368754 0,01801502 -0,1083317 0,5982984 0,4681453 0,01079432 -0,2772997 0,2438137 -0,02844585 -0,05081484 -0,2476083 -0,217383 0,5072207 0,104556 -0,364455 0,4451217 -0,1863986 0,06871022 0,69191 -0,02221907 0,02372099 0,4107434 -0,0154428 -0,02367688 -0,02171849 -0,01267437 0,001433305 -0,04744169 -0,09949278 0,005621798 -0,01079794 0,1412886 0,001532572 0,01428213 -0,008857727 -0,00219038 -0,09851436 0,06574181 -0,06040036 0,2768793 0,06841849 0,009429862 -0,005519886 0,1583807 0,01345686 -0,05011 0,05845851 0,0004702806 -0,5624219 -0,4150215 0,06472516 0,2197461 0,3619529 -0,1370733 0,3695064 0,08300432 -0,3000171 0,8347149 0,6505602 0,05391525 0,2419192 -0,02421392 0,3037408 -0,4725544 0,04023677 0,01687933 -0,05335438 -0,03893682 0,08672056 0,05229044 0,05690648 0,2312147 -0,1819368 0,4162378 0,3645415 -0,2238234 -0,1891311 -0,2121446 -0,2589587 -0,1057951 -0,06055036 -0,1598938 0,5716366 0,5762472 -0,08027439 -0,2032786 0,08491357 0,1180669 0,09356508 -0,0605365 0,2052714 0,2160703 0,05925862 -0,03295728 0,04095691 -0,3852714 0,5908508 0,00841875 