0,03383542 0,09025061 -0,8729849 -0,6887628 -0,539099 0,3463892 2,314842 0,3299653 0,5685824 -0,07771084 0,5126788 1,284404 -0,4631703 -5,422301 0,1614724 -0,1798706 0,2162837 0,4932687 0,4489808 0,4810812 0,4913946 -0,1758863 -0,08436757 -0,1608365 -0,080908 -0,09534181 -0,248112 0,6163765 -0,7722939 0,2443626 0,04567257 0,1660867 -0,8494335 -0,8722607 -0,7156558 -0,701986 -0,8958713 0,09282745 0,04531618 0,09686152 0,04560934 0,02961208 0,3726875 1,087981 0,1354303 0,4313056 0,1089087 -0,3794213 0,06846176 0,05524257 0,07099807 0,06487565 0,04586335 0,01707666 0,00826417 0,01794812 -0,0005134352 0,01555339 -0,008247485 -0,0222089 -0,05244645 -0,2857047 0,0016069 -0,01106432 -0,2945349 -0,2890794 -0,3275739 -0,3275881 -0,2652583 -0,06195961 -0,04901729 -0,07130288 -0,01517593 -0,04298194 0,0118628 0,1998061 0,2541207 0,5077704 0,007686888 0,02725696 -0,04710199 0,02601502 0,04497851 -0,02426482 0,08267919 -0,03388844 -0,05944337 -0,07223063 -0,01376242 -0,01919301 -0,09524347 0,1594088 0,1227749 0,252304 -0,01416709 -0,1601878 0,03695809 0,1503075 0,251471 -0,4105672 0,1278297 -0,05211175 -0,1250567 -0,2851042 -0,1725577 -0,01222013 0,94459 -0,3992807 0,1212966 1,569718 0,4260319 -1,064933 0,5267786 -0,1168073 -0,3957987 -0,4858045 -0,2459088 0,1469291 0,3057387 0,1440804 1,969921 -0,2102564 -0,01145258 1,200716 -0,3693198 -3,886858 0,1203552 -0,262022 1,64617 1,050911 1,003754 1,142292 0,8994409 0,1917707 0,2668103 0,2298848 0,09833191 -0,07926524 -8,378093 0,9598983 0,7919142 -0,8428387 -0,7114466 0,3226615 0,08951607 0,003970532 0,01541402 0,06689657 -0,02988897 0,04151419 0,04838251 0,04765473 -0,009914864 0,09503895 0,07185338 -0,02545512 -0,1553806 -0,6743476 0,02601799 0,01945548 0,2696285 0,2076266 0,2157546 0,1991163 0,1699052 0,07882221 0,05420754 0,07329858 0,01760587 -0,04250716 -0,09333292 -0,2454205 -0,08717217 -0,9931613 -0,01083303 0,08538852 -0,3964125 -0,4061062 -0,4684895 -0,472115 -0,3694521 -0,06167345 -0,04784568 -0,08635197 -0,002029125 -0,03277673 0,02675406 0,1607134 0,4129951 0,5611984 0,006097369 0,02933455 -0,368991 -0,5852714 -0,4174906 0,483945 -0,6983953 0,2370739 0,2381047 0,1699172 0,261511 -0,05762257 -0,615106 0,0821288 -0,004767576 -0,3927512 1,069235 -0,0694593 0,3765923 0,1632478 0,1230232 0,3074061 0,08418687 0,03366463 0,09639158 0,08973936 0,07049914 -0,05380123 -0,1197711 0,05306713 0,5957506 -0,2400351 0,1766449 0,2490383 0,005115954 0,07568014 0,1342343 0,06872409 0,0829757 0,01382402 -0,009676573 0,01363922 0,005008806 -0,06994629 -0,03500367 0,09640034 -0,01030447 0,443148 -0,02532684 -0,1173339 -0,07383748 -0,05569488 -0,08378541 -0,1195216 0,005340751 -0,06958199 -0,09012732 -0,1185723 -0,03919062 0,03816685 -0,1093659 0,1864857 0,1779198 -0,3532102 0,0165839 -0,09113177 0,08213597 0,1709636 0,2692289 0,138503 0,184143 0,02721167 -0,03722683 0,01617807 0,003617482 -0,07482038 -0,1406143 0,1925869 0,01888757 -0,1416429 -0,02875568 -0,241119 0,1622708 0,1822243 0,2235997 0,24066 0,1302479 0,08033985 0,09958803 0,1223936 0,05042375 -0,06841471 0,08268626 -0,2841326 -0,2171698 0,665032 -0,03598307 0,05794172 -0,1402712 -0,1358523 -0,09848244 -0,1365778 -0,1349612 -0,00532219 -0,02317418 -0,006572946 -0,01250109 -0,02704979 0,002784963 0,2264033 0,08586086 0,07837704 0,001464047 -0,07047655 2,269864 1,947203 1,991212 4,345707 1,850522 0,08556441 0,1947449 0,1015905 0,03637394 -0,02991826 -9,227178 0,1177627 0,864795 0,704168 -0,8844414 -0,8228485 -0,5012922 0,08107709 0,1422795 0,1043076 0,298358 -0,4403922 -0,05667121 -0,5916434 0,161488 0,02530954 0,5829823 -0,7976259 0,1917103 1,510571 0,1446157 -0,0975922 -0,5065624 -0,609455 -0,578455 -0,5337737 -0,7106466 0,01269066 0,03858693 0,09064289 -0,007129779 -0,1142615 0,2261823 0,3778361 0,1422988 0,5568269 0,02020259 0,1991901 0,2182784 0,2836345 0,3403421 0,3537304 0,2641608 0,06166955 0,07920033 0,09550974 0,03225405 -0,05171799 0,05677658 -0,2149983 -0,2922043 0,9868081 -0,03129269 -0,0562516 0,3421267 0,1974401 -0,7974554 -0,7412791 -0,3936655 2,876052 1,107404 -0,3302912 0,7298538 -0,05749286 0,7879391 0,9352641 -0,04738139 -4,264584 -0,005579819 0,2511941 -0,2990358 -0,2842791 -0,3250165 -0,3462866 -0,2466059 -0,06877195 -0,06764331 -0,0899056 -0,01759103 -0,04529921 -0,02834353 0,2205384 0,3109996 0,3465672 0,006504123 0,003774418 ;-0,2580391 0,06910704 0,1287258 0,01132917 -0,05672907 0,01603353 0,1380066 -0,2016004 0,2118409 0,01277653 -0,01821257 -0,08909289 0,04310783 0,2374017 0,05646252 -0,04271745 0,07917144 0,066354 0,01218063 -0,05084565 0,03042123 -0,03387843 0,1052383 0,4921183 -0,06680684 0,2796774 0,09115291 0,03496219 -0,007210661 -0,01098267 0,05251915 -0,01027247 -0,1843195 0,05449104 -0,05022475 -0,0474773 -0,02503146 -0,06684136 0,3573159 0,06858263 -0,01439476 0,07837127 0,05302392 0,00943766 0,03428376 0,1733932 -0,06260195 0,1001109 0,06418303 -0,01235723 0,05218013 -0,04565371 -0,01394698 0,0189205 -0,06661558 -0,01100931 0,017413 0,07616401 -0,1558021 0,03047749 0,04562204 -0,08496053 -0,05441036 0,5314519 0,01941265 -0,03481032 0,04982598 0,04674617 -0,006606475 -0,03915606 -0,1318468 -0,05134218 0,05115063 -0,3856024 -0,0693872 -0,09842062 0,1340231 0,02705505 0,008759505 -0,03084599 0,02987077 -0,08607905 0,2865871 0,04056568 -0,01114259 0,005454673 -0,06029417 -0,05413976 0,2962866 0,04416076 0,001435779 0,08248424 0,0136934 0,01397687 0,01119099 0,1327999 -0,04578612 0,04024807 -0,05404819 -0,02740955 0,027276 0,5367872 0,634811 0,00400979 0,0090675 0,1379781 -0,05109097 0,01164635 0,1693093 0,0509986 -0,3256117 -0,05308987 -0,1645546 0,9585612 0,06593768 0,1385369 0,1340138 -0,1878045 0,09931216 -0,01294979 -0,1073682 -0,06137576 -0,06636606 0,03739421 0,01526855 0,02128799 -0,6822381 0,1901034 0,00876844 0,0119888 0,007424216 0,054337 -0,04412053 -0,4245566 0,08710089 -0,06595777 0,08788102 -0,1141511 1,151416 -0,08193224 0,08353149 -0,05666713 -0,1298397 -0,001374451 0,04453801 0,1065266 -0,08563223 -0,1207283 -0,003880659 0,02524258 -0,01223866 0,04997364 -0,01286958 -0,03339149 0,04000438 0,04273947 0,02931081 -0,0110338 0,06388527 -0,01815092 -0,1586623 0,05387863 0,002560601 0,1586132 0,02501735 -0,01223248 -0,07192083 0,05887029 -0,0131905 -0,01562437 0,00461287 -0,05366915 0,1516774 0,01865791 0,01362437 -0,02972712 -0,1053221 0,04906074 -0,01486348 0,05052527 0,05743581 0,3958709 -0,03491211 0,4206192 -0,0537203 -0,05700188 0,07643554 0,4916394 0,827879 0,02555464 0,04567837 0,03388231 -0,0373812 0,0212989 -0,4984489 0,2737235 -0,02109374 -0,02440028 0,08929793 0,06246682 -0,08077826 0,1390672 0,06815592 -0,01464956 0,01907238 -0,04271377 -0,2538439 -0,06482912 0,2442267 -0,007311294 -0,05180931 -0,0007803543 -0,126068 0,8402858 0,001642734 -0,06573978 -0,06066144 0,06901625 -0,006886086 -0,4895199 0,09814512 0,1226686 0,07754505 0,0621277 -0,006619404 