0,3526599 0,4654447 0,3988408 0,5429916 0,2450229 0,3394591 0,09713272 0,3878645 0,2041975 0,05249124 -0,002120089 -0,2829564 -0,3791967 -1,196711 -0,2436715 0,03993619 0,3675074 0,4290549 0,3639204 0,03351092 0,2210285 0,05347853 0,05645039 0,1570331 0,0129714 -0,05842734 0,1172985 -0,02241042 0,7461641 -0,03428826 0,01537272 0,08393966 -0,2163833 -0,2540784 -0,1207986 -0,05470368 -0,1063468 -0,04800417 -0,08463681 -0,1354664 -0,1483841 0,04906653 0,09462827 0,4123957 -0,08366229 0,6030645 0,05610101 -0,04056164 0,174566 0,1776589 0,2011095 0,2022814 0,187998 0,02565753 0,01710096 0,01931166 -0,004055661 -0,0325372 -0,01186248 -0,1322047 -0,1161444 0,1828212 -0,01219596 -0,03240549 -0,6600309 -0,6698215 -0,5660827 1,323531 -0,603746 0,2434125 0,1119577 0,2881742 0,08356617 0,06315789 0,1365477 -0,2166228 -1,092699 -1,366135 0,6882248 1,783284 0,3406393 0,3364805 0,4418368 0,3341526 0,3661305 -0,02545833 0,02368902 -0,06591199 0,02855921 -0,06417126 -0,1322571 -0,2393264 -0,1269778 0,9101238 -0,002642234 -0,1370228 0,2963126 0,2996059 0,3747591 0,3878896 0,2846044 0,1231947 0,009263905 0,1422113 -0,02853546 -0,02171598 0,006692271 -0,2022743 -0,2534912 -0,6260786 -0,04932639 -0,006337837 0,9769028 0,4743041 -0,1923565 -0,1475329 -0,06475028 0,3010857 1,784057 -0,008191818 -0,1588767 -0,1496537 0,5509321 1,12664 -0,2722642 -6,296824 -0,01826432 -0,06440433 0,2069594 0,2137964 0,1775777 0,0722295 0,1380141 0,0006359578 -0,004157544 0,04410412 -0,06958025 -0,1555943 -0,1036885 -0,2766914 0,07691614 -0,8503489 0,006060664 0,0917857 0,2414685 0,5124345 0,4032042 1,196521 0,6111473 -0,1040945 0,1596805 0,3896875 0,1717031 -0,07103771 -1,666662 0,7820535 -0,1962298 -1,376101 -0,2623715 0,531755 0,3010443 0,2817165 0,4065524 0,2694101 0,3186918 -0,04930111 0,02559599 -0,09475909 0,06435383 0,02372226 -0,1567161 -0,2784359 -0,07918902 0,9310155 0,02190197 -0,1525735 2,050506 0,1027579 -1,100431 9,820873 -1,387666 -0,09428205 0,02194987 -0,06111801 -0,1048064 -0,2316218 -20,2787 -0,1444535 2,0226 1,08011 0,7465852 -8,526121 0,316192 0,3248285 0,3820457 0,4080844 0,390143 0,04251919 0,0251129 0,03038337 -0,04140116 -0,09060962 -0,01015639 -0,1588658 -0,266984 0,4304892 -0,01000039 -0,06774649 0,1513295 0,1507182 0,01349418 0,04813002 0,1209617 -0,1686985 0,02249665 -0,0866137 0,1168837 0,1019404 0,02783979 -0,3468835 -0,0175493 0,885065 0,08588944 -0,03974162 0,1669223 0,1398437 0,2485511 0,3525549 0,1647047 0,1197785 -0,04021953 0,1201671 -0,1222735 0,06880835 0,1497943 -0,09145707 -0,2998497 -0,6535064 -0,03380583 0,03441191 0,9574683 0,8889465 -0,08661357 -0,001426737 0,491666 -0,8046604 0,4856509 2,65968 0,1704891 -0,1430662 0,3490887 1,117463 0,003700802 -5,409527 0,03128408 0,2071261 0,2654845 0,2303662 0,1874685 0,8649681 0,1786342 -0,06660804 0,1618835 0,1500668 0,1212898 -0,08752981 -1,528633 0,4057828 0,08854067 -0,09211009 1,01667 -0,7152757 -0,3187016 -0,3196313 -0,3955522 -0,4439442 -0,3111458 -0,1263964 -0,000206688 -0,1459174 0,05146065 0,01015564 -0,04035607 0,2088959 0,3085908 0,609228 0,04616417 0,001233031 0,4003461 0,3234519 0,2537894 0,4429377 0,2076046 0,2021564 0,05204592 0,1295824 -0,02373107 0,2800792 0,5440879 -1,269528 -0,2017016 -0,2577004 -0,05048566 0,2117029 1,117713 1,065441 0,8833245 1,079669 0,8512048 -0,0874847 0,2499961 0,1990899 0,1066217 -0,0247583 -0,6778714 0,6000635 -1,443573 -1,684159 -0,3180672 0,8643206 0,3130142 0,3149725 0,3907603 0,4245728 0,3034661 0,1247248 0,004209882 0,1442027 -0,04069411 -0,0138161 0,02534857 -0,2087129 -0,2882424 -0,6108556 -0,04730803 -0,004605674 -0,5814729 0,6294802 0,6977592 0,6057981 0,9626081 -0,4227658 -0,1237203 0,12142 0,3034134 0,1181189 0,1128544 -1,528054 -0,02596638 2,255746 -0,4754713 0,6113152 3,777292 3,099988 2,995216 3,239043 2,980164 0,4776558 0,2354914 0,201238 -0,1637663 -0,01714736 -15,60656 0,5829746 0,1451236 -3,03355 -0,4485569 0,9358669 -0,9254466 -0,4109205 -0,531176 -0,6182112 -0,2999507 -0,3813611 -0,01784288 -0,5650815 -0,1342821 -0,05450663 1,427477 0,368046 -0,4348188 3,290632 0,5987116 -0,4337514 0,9925239 0,2024343 -0,07463297 -0,2805081 0,01326444 0,3522986 0,04443376 -0,119124 1,597601 -0,02067204 1,086557 0,4740781 -0,2582018 -4,246827 -0,1349428 -0,003345647 ;0,0761944 0,7779973 0,09622561 0,0378647 0,04491888 0,06808513 0,08039004 0,07920593 -0,08971009 0,05097758 0,06711154 -0,03381631 0,09252644 -0,0334565 0,1226311 -0,4721222 0,02249888 -0,0989802 0,06504597 -0,006138112 0,09205107 -0,1095904 0,2147734 0,2271953 0,09175414 -0,04960337 0,3710704 0,07983148 0,01796977 -0,000327707 0,0653213 -0,02788232 0,3862404 -0,08990301 -0,05573228 0,06835346 0,04198994 0,05076604 0,03871669 -0,01805152 -0,04564993 -0,03402321 0,02203208 -0,009743976 -0,01193087 -0,02398627 0,2738984 0,06810784 0,08986999 -0,1563495 0,1236594 0,130564 0,07940609 0,02913832 -0,0009124088 0,06501029 0,04580923 -0,3175181 -0,1165246 0,02573574 0,0629175 -0,01023928 0,06801656 -0,03246116 0,07074168 0,4851263 -0,08818556 -0,05758067 0,004973309 -0,03290722 0,05343719 -0,1812454 -0,1588826 -0,2222509 -0,2219383 -0,0912247 0,03217169 0,06577358 0,01831662 -0,01110535 0,072381 0,006117343 -0,1065783 -0,03274678 0,1699981 0,08322481 -0,01294723 0,05191781 0,001875774 0,003278806 -0,002551668 0,07171255 -0,007531184 -0,1071277 -0,001758337 0,007396107 0,05859529 0,03397476 0,0267163 0,3236367 0,2702625 0,8699497 0,5559693 -0,09042004 -0,03005072 -0,2519378 -0,08703614 0,008717662 -0,7225409 -0,06191445 -0,2232373 -0,007180344 -0,04928388 -0,04317169 0,2235724 -0,009585754 0,02855581 0,0148055 -0,5914782 0,1756186 -0,04345318 -0,04824331 0,1187181 0,04115489 0,01328919 -0,2178909 1,034953 0,1498725 -0,04251358 0,08361167 -0,1513205 -0,1148145 0,1030072 -0,155318 0,3057115 -0,1239531 0,03497537 -0,07554647 0,1720238 0,06591747 0,03839445 -0,08208856 0,07468412 0,4654515 -0,6160978 -0,09147952 -0,03863295 -0,3231213 -0,03268001 0,09193571 0,03319135 0,1796056 0,08529682 0,06101062 0,00892081 0,05072647 -0,0523399 -0,006175108 -0,06655152 -0,003589028 -0,08064861 -0,02328824 0,1798091 0,05957221 -0,06251796 -0,008480028 0,002645261 0,02883695 0,008534988 -0,000330655 -0,03940641 0,009886881 0,04809949 0,01371676 -0,03189243 -0,1173675 0,5446071 0,05784409 -0,01077016 0,3473122 0,02295506 -0,05189956 0,09438965 -0,04004459 -0,3286883 0,03117372 -0,5478325 -0,009710602 -0,01784878 -0,05706731 0,01919023 0,443734 0,05981081 -0,1817911 -0,3935731 -0,05669389 0,1280835 0,1160661 -0,00308037 0,1286346 -0,1286592 0,5435429 -0,130248 -0,02253623 0,3060563 0,002820697 -0,09813998 -0,07176533 0,04853449 0,3585553 0,02633209 -0,3737939 -0,06469186 0,1899395 -0,1665941 0,001266123 -0,3539124 0,1157669 -0,01475497 -0,1123314 -0,1079493 -0,1813061 0,04836113 0,04365038 -0,05634487 