-0,02299085 -0,03822119 -0,01446027 -0,0391447 -0,02449315 -0,007032088 -0,01462033 0,02689006 -0,0463406 -0,003783033 -0,125737 0,3476344 -0,04350992 -0,1674909 0,0105608 -0,06517132 0,6832753 -0,3177854 0,06826731 -0,02133178 -0,3644986 -0,05751305 -1,139243 0,3732735 1,643654 -0,186849 0,4436789 0,7180395 -0,1334733 -0,7582033 0,2296701 -0,1257346 0,2765101 0,1994153 0,2449042 0,2696244 0,2271385 0,06688617 -0,003925011 -0,0408933 0,009493765 -0,0619167 -0,2061703 -0,1244019 -0,02846076 0,2615406 0,1150372 -0,1777861 0,2380856 0,2761286 0,2330669 0,1962238 0,252011 -0,01137595 -0,02210148 -0,01614003 0,021385 0,008025889 0,01520198 -0,04974541 -0,2142093 -0,3676781 -0,06382093 -0,03165757 0,6012093 0,6108847 0,5310723 0,4902549 0,6173959 0,09588841 0,05123663 0,0176594 0,1263467 0,01922804 -0,1446114 -0,2259072 -0,3983622 -0,6381161 -0,004795527 -0,2204553 -0,5394948 -0,07811756 -0,3169406 -0,2410853 -0,00214308 0,1304217 0,2890243 -0,7627625 0,3571208 -0,06278826 -0,1843906 0,2925411 0,3178096 0,07055848 0,2131169 -0,1293028 0,1365543 0,1759468 0,1526779 0,1027377 0,153869 -0,04781139 -0,03964977 -0,003788884 -0,02875851 0,006590825 -0,03390042 0,1854874 -0,1805221 -0,3043158 -0,06999823 -0,03913426 -0,1750969 -0,2351787 -0,2285538 -0,2183859 -0,256492 0,06579954 0,02148864 -0,006646069 0,02697555 0,003191274 0,1140712 0,1458148 0,02639287 -0,5366329 -0,02241105 0,1043807 0,264322 0,3847077 0,3103669 0,3303925 0,4467375 -0,003556495 0,08036117 0,1195008 0,09994187 0,07126822 -0,07525498 -0,3802586 -0,200148 0,2040442 0,04739762 -0,08135048 0,2299953 0,2410129 0,2071184 0,2242896 0,271632 0,0734823 0,06323428 0,0483078 0,09352477 0,02714654 -0,05091873 -0,2447674 -0,1541728 -0,1383155 0,04569654 -0,07157385 -0,175569 -0,1351301 -0,1674142 -0,1426981 -0,1586838 -0,03027352 0,01175801 -0,008954644 0,02226855 0,0322587 0,2299852 -0,2316522 0,0929299 0,1718911 -0,0575169 0,1572457 0,03571945 -0,2046364 0,3486388 1,205213 -0,4072293 0,001561574 -0,320628 -0,1458671 -0,06632335 -0,08002581 -2,782233 -0,3954287 -0,42654 1,198902 -0,1850171 -0,9881486 -0,1586371 -0,2379376 -0,1625611 -0,1568764 -0,2092863 0,02512184 -0,01239261 -0,00651897 -0,08057129 -0,03366098 -0,1479974 0,3131722 0,1755186 0,1955864 0,08030124 -0,07323323 0,1570124 0,200632 0,166073 0,1731914 0,1916104 -0,01760782 0,007700392 -0,009549962 0,04958761 0,00460446 0,05214875 -0,3304584 -0,0646748 0,1481318 -0,01357404 0,009050972 -0,1077309 -0,09766489 -0,1194592 -0,101831 -0,1139239 0,007414408 0,01608404 -0,001903728 0,02970228 0,02020108 0,1482214 -0,1364642 0,04649805 -0,04059774 -0,03273863 0,1051857 0,6031969 0,5709774 0,5574627 0,4890881 0,5465069 0,04136823 -0,04977966 -0,05590213 0,02146768 -0,06479928 -0,2636566 0,02268583 -0,3304985 -0,6715215 0,006274488 -0,2297017 -0,3339375 -0,2953215 -0,3237582 -0,3173802 -0,3286226 -0,04588152 0,007283471 0,0105832 -0,005230122 0,04525869 0,2525937 0,03482813 0,1106365 -0,02825995 -0,09668481 0,2019004 -0,1203053 -0,1449617 -0,1077342 -0,1020809 -0,1433887 -0,02139908 -0,02309786 -0,02520671 -0,05100099 -0,02553796 -0,02687527 0,08133552 0,1440443 0,2743183 0,02340132 -0,0004724834 -0,1324663 -0,1565488 -0,1231386 -0,118774 -0,1494634 -0,01735025 -0,01382184 -0,007222989 -0,04892797 -0,01671427 -0,04435825 0,1395787 0,1292076 0,2309676 0,02446378 -0,006797458 0,0936036 0,07907731 0,06343909 0,07765019 0,06892253 0,041917 0,01816951 -0,01983154 0,05568704 -0,003999072 0,05881451 -0,2196935 -0,03515828 -0,08843073 -0,00129385 0,01561858 0,5154649 0,5275069 0,4909569 0,4473612 0,4928004 -0,05981463 -0,0302102 -0,04968711 0,112499 -0,05499757 -0,1413023 -0,09715041 -0,3760791 -0,7613396 -0,05356294 -0,1033134 -0,1609455 -0,1993614 -0,1318234 -0,1288856 -0,1717105 -0,02659526 -0,01408354 0,01125538 -0,07782012 -0,02902628 -0,1476683 0,2624022 0,1636902 0,357475 0,07312388 -0,04672047 0,002389236 0,009793903 -0,0009125718 -0,02562735 -0,002544613 2,251117E-05 -0,00507647 0,01002717 0,002271875 0,01152254 0,01537085 0,1557961 -0,08956906 -0,4061041 -0,04112258 0,01447523 0,2192328 0,2289823 0,2167842 0,1754507 0,2172968 -0,00343772 -0,0312473 -0,01173534 -0,007978923 -0,01169612 -0,08389203 0,1084768 -0,1804891 -0,3865631 -0,02713154 -0,07928835 -0,06488875 -0,08480636 -0,06189126 -0,03838481 -0,0791813 -0,004566763 -0,00786443 -0,0280487 -0,02174262 -0,02239522 -0,00117087 -0,1193189 0,1532655 0,4240617 0,03852548 0,00119647 -0,3245901 -0,3279815 -0,2111734 -0,7214888 -0,2660481 0,002281467 -0,2280535 -0,2969321 -0,03937721 -0,2186226 -1,108706 0,9440671 -0,01643843 0,6139593 0,01030067 0,4780317 0,0245623 -0,03093734 -0,02042659 -0,01015489 -0,08853374 0,0172798 -0,06077739 -0,1355694 -0,008430114 -0,0542306 0,1692805 -0,2529454 0,1078514 0,04979957 -0,05347242 0,06374706 -0,0443495 -0,06503555 -0,04925308 -0,04949069 -0,08612534 -0,01520679 -0,02820639 -0,05021829 -0,02409446 -0,02601713 0,04212048 -0,02139394 0,07945124 0,1226779 -0,0155959 0,02371345 0,0702839 0,02598736 0,04496209 0,04488301 0,0469967 0,05628283 0,01840773 0,01623292 0,01089001 -0,01110793 -0,1160867 0,119711 -0,04159695 -0,1722462 0,04761332 -0,08224966 -0,7290747 -0,6745362 -0,5179537 -0,7051051 -0,5898007 -0,09436702 -0,2021712 -0,09703544 -0,1762189 -0,005106379 0,9255641 -0,5551987 0,693391 0,5604894 1,015708 -1,063104 -0,09047657 -0,05622124 -0,05328244 -0,09735785 -0,04773724 -0,04525906 -0,01908979 0,06447816 -0,05909579 0,03172942 -0,08032691 0,4569987 -0,09235921 -0,3349398 -0,03636813 -0,02618617 0,2484625 0,3036779 0,2807545 0,2650071 0,3040954 -0,05038949 -0,03772905 -0,03004953 -0,02408302 -0,005789083 -0,05213738 -0,216534 -0,07970601 0,3821149 -0,008071578 -0,0916772 -0,002383104 -0,1716428 -0,3067719 -0,2755265 -0,2167606 0,471862 -0,09197635 -0,2122438 -0,1886258 0,0742018 0,498991 -0,1307452 -0,01489737 -0,2117478 -0,1500083 0,1701771 -0,08812898 -0,1339949 -0,1149673 -0,1117106 -0,1295938 0,04777115 0,01476836 0,006654692 0,00309052 -0,005242374 -0,01432385 0,1481475 0,04037645 -0,2456865 0,0172949 0,004238037 -0,09602471 -0,09809305 -0,1191247 -0,07830849 -0,1049619 0,04777708 0,04612014 0,002995291 0,07754632 0,02307329 0,187806 -0,3473639 0,08278931 -0,05792136 -0,002379094 0,1309641 ;0,1262998 -0,4271658 0,01427893 0,2535167 -0,0261077 0,0892773 -0,01561249 0,0009631685 -0,01316203 -0,02829415 -0,07063929 -0,440202 0,0101818 -0,1939528 0,247213 -0,0600585 0,06949458 -0,3264862 0,1207553 -0,06795954 -0,07587422 -0,09864465 -0,1957732 0,1656567 0,2236835 -0,05656748 -0,07773455 -0,2587407 0,1523972 -0,001617728 -0,1965896 0,2290049 -0,01858396 0,09279641 0,06404547 -0,1410426 -0,4275922 -0,01185994 -0,2604748 0,07091819 0,08900488 -0,006077375 -0,04024016 0,1354691 0,08436146 0,07653011 -0,4413721 -0,03063275 0,2186993 -0,2450345 0,03828637 -0,08458225 0,3082323 -0,1314803 0,07022519 0,01254985 0,09314455 0,1760037 -0,1816648 -0,2182432 -0,06376229 0,006910517 0,2283372 -0,1501407 -0,0002455899 0,1833209 -0,2038627 0,04792181 -0,1080634 -0,04544122 0,0005093674 0,1263438 0,007135118 -0,02393217 -0,02213282 -0,2567952 -0,01578491 -0,0547405 0,07345255 0,01028938 -0,002873201 -0,2764549 0,007859415 0,01321636 -0,01165495 -0,03405362 -0,01488788 0,008684607 0,01278315 -0,0167569 -0,02147013 0,03373324 -0,02348876 -0,0193302 0,01807722 -0,1074964 -0,05726837 -0,0130149 -0,005529513 -0,03881063 0,003088795 0,02589575 -0,3215844 -0,01929467 -0,009525642 -0,008322303 0,2581876 -0,01959992 0,01062244 0,01192554 0,1474468 0,009957606 -0,03220326 0,06260269 0,01147203 0,01375415 -0,0615732 -0,03403994 0,02378455 0,001548653 -0,01192769 0,007761645 -0,01043746 -0,008745728 -0,003841443 0,03277256 -0,01067322 -0,003823559 -0,001203827 -0,004279506 0,01335626 -0,03094454 -0,01011575 -0,01600006 -0,05089801 0,004390492 0,02384165 -0,1642461 -0,0222905 -0,001799339 0,3076375 0,1055764 -0,07832727 -0,06882422 -0,2167562 0,2774762 0,1399584 -0,009221792 -0,1353889 -0,1556686 -0,2335278 -0,4325429 0,2973644 -0,2650399 -0,1562117 0,04320186 -0,04548669 0,07688776 0,1329565 -0,2304315 -0,3446596 0,294329 0,08765313 0,09161452 -0,07125536 -0,1786139 -0,3599962 -0,06762934 0,1061461 -0,2307566 0,4098604 -0,08912066 0,002075583 0,08692101 -0,3282951 0,04377745 0,1229368 -0,006942402 -0,1270429 -0,2243686 0,2717267 -0,08418903 -0,05300633 0,04305646 -0,03232915 -0,02679362 -0,8061688 0,1499335 -0,07273461 -0,02506665 -0,1381281 -0,01518108 0,06799934 0,0804693 -0,07967699 -0,4341573 0,1623419 -0,04998612 -0,06497899 0,06763105 -0,7975075 -0,1357108 -0,02943178 0,01773191 0,2438771 0,04523467 -0,0105385 0,1846643 0,02242647 -0,01600836 0,001821464 0,01856603 0,05400456 -0,01782838 -0,03130057 0,01854917 0,006903136 -0,1412213 0,09734955 -0,00499422 -0,005717416 -0,04126944 0,01948689 0,02844546 -0,03880322 -0,05764138 -0,03989866 0,02890025 0,02648578 -0,03366726 -0,08943034 0,0472254 -0,05453544 -0,02232482 0,04389445 0,009645757 -0,03435687 0,002971579 -0,02211639 -0,03535496 -0,005180543 0,1193386 0,01838184 -0,06350292 -0,07519812 0,02262116 -0,05241619 0,07723921 -0,08748797 -0,0936404 0,1417002 -0,06550667 -0,03315058 -0,002170214 -0,01073598 -0,03911681 -0,9299583 0,1087789 -0,03586809 -0,03126411 -0,06440283 -0,05279985 0,05155831 0,05339158 -0,02825314 -0,1333163 0,1033326 -0,04529366 -0,04708417 0,05438341 0,008717597 -0,04049294 0,001357913 0,0290763 0,6779023 -0,01181487 -0,006501457 -0,1030528 0,01515793 -0,02501092 -0,06563184 -0,001960213 -0,1692292 -0,00775349 -0,1314947 -0,07265849 -0,0160274 0,02145935 0,03396081 -0,03424087 0,1510823 -0,881374 -0,1015891 0,0401146 0,08633038 -0,2244058 0,1776943 -0,01532131 -0,01645171 0,006905508 -0,1043031 -0,06321401 8,783931E-05 -0,06999788 0,0004978674 0,2371022 0,0190894 0,005797971 -0,08816902 -0,1549435 -0,01238911 -0,01738228 0,07142249 -0,03130743 0,09585628 